digraph Tree {
node [shape=box, style="filled, rounded", color="black", fontname="helvetica"] ;
edge [fontname="helvetica"] ;
0 [label="age <= 1.069\ngini = 0.093\nsamples = 3987\nvalue = [3792, 195]", fillcolor="#e68743"] ;
1 [label="age <= 0.455\ngini = 0.046\nsamples = 3305\nvalue = [3228, 77]", fillcolor="#e6843e"] ;
0 -> 1 [labeldistance=2.5, labelangle=45, headlabel="True"] ;
2 [label="avg_glucose_level <= 3.379\ngini = 0.018\nsamples = 2527\nvalue = [2504, 23]", fillcolor="#e5823b"] ;
1 -> 2 ;
3 [label="age <= -0.247\ngini = 0.017\nsamples = 2520\nvalue = [2499, 21]", fillcolor="#e5823b"] ;
2 -> 3 ;
4 [label="avg_glucose_level <= -1.598\ngini = 0.003\nsamples = 1590\nvalue = [1588, 2]", fillcolor="#e58139"] ;
3 -> 4 ;
5 [label="avg_glucose_level <= -1.598\ngini = 0.044\nsamples = 44\nvalue = [43, 1]", fillcolor="#e6843e"] ;
4 -> 5 ;
6 [label="gini = 0.0\nsamples = 43\nvalue = [43, 0]", fillcolor="#e58139"] ;
5 -> 6 ;
7 [label="gini = 0.0\nsamples = 1\nvalue = [0, 1]", fillcolor="#399de5"] ;
5 -> 7 ;
8 [label="smoking_status3 <= 0.963\ngini = 0.001\nsamples = 1546\nvalue = [1545, 1]", fillcolor="#e58139"] ;
4 -> 8 ;
9 [label="gini = 0.0\nsamples = 1358\nvalue = [1358, 0]", fillcolor="#e58139"] ;
8 -> 9 ;
10 [label="avg_glucose_level <= -0.749\ngini = 0.011\nsamples = 188\nvalue = [187, 1]", fillcolor="#e5823a"] ;
8 -> 10 ;
11 [label="avg_glucose_level <= -0.768\ngini = 0.042\nsamples = 47\nvalue = [46, 1]", fillcolor="#e6843d"] ;
10 -> 11 ;
12 [label="gini = 0.0\nsamples = 46\nvalue = [46, 0]", fillcolor="#e58139"] ;
11 -> 12 ;
13 [label="gini = 0.0\nsamples = 1\nvalue = [0, 1]", fillcolor="#399de5"] ;
11 -> 13 ;
14 [label="gini = 0.0\nsamples = 141\nvalue = [141, 0]", fillcolor="#e58139"] ;
10 -> 14 ;
15 [label="bmi <= 2.618\ngini = 0.04\nsamples = 930\nvalue = [911, 19]", fillcolor="#e6843d"] ;
3 -> 15 ;
16 [label="avg_glucose_level <= -1.308\ngini = 0.038\nsamples = 926\nvalue = [908, 18]", fillcolor="#e6833d"] ;
15 -> 16 ;
17 [label="avg_glucose_level <= -1.314\ngini = 0.134\nsamples = 69\nvalue = [64, 5]", fillcolor="#e78b48"] ;
16 -> 17 ;
18 [label="hypertension <= 1.393\ngini = 0.086\nsamples = 67\nvalue = [64, 3]", fillcolor="#e68742"] ;
17 -> 18 ;
19 [label="smoking_status2 <= 0.273\ngini = 0.033\nsamples = 59\nvalue = [58, 1]", fillcolor="#e5833c"] ;
18 -> 19 ;
20 [label="gini = 0.0\nsamples = 40\nvalue = [40, 0]", fillcolor="#e58139"] ;
19 -> 20 ;
21 [label="age <= 0.213\ngini = 0.1\nsamples = 19\nvalue = [18, 1]", fillcolor="#e68844"] ;
19 -> 21 ;
22 [label="gini = 0.0\nsamples = 14\nvalue = [14, 0]", fillcolor="#e58139"] ;
21 -> 22 ;
23 [label="avg_glucose_level <= -1.432\ngini = 0.32\nsamples = 5\nvalue = [4, 1]", fillcolor="#eca06a"] ;
21 -> 23 ;
24 [label="gini = 0.0\nsamples = 1\nvalue = [0, 1]", fillcolor="#399de5"] ;
23 -> 24 ;
25 [label="gini = 0.0\nsamples = 4\nvalue = [4, 0]", fillcolor="#e58139"] ;
23 -> 25 ;
26 [label="age <= -0.094\ngini = 0.375\nsamples = 8\nvalue = [6, 2]", fillcolor="#eeab7b"] ;
18 -> 26 ;
27 [label="gini = 0.0\nsamples = 1\nvalue = [0, 1]", fillcolor="#399de5"] ;
26 -> 27 ;
28 [label="age <= 0.389\ngini = 0.245\nsamples = 7\nvalue = [6, 1]", fillcolor="#e9965a"] ;
26 -> 28 ;
29 [label="gini = 0.0\nsamples = 6\nvalue = [6, 0]", fillcolor="#e58139"] ;
28 -> 29 ;
30 [label="gini = 0.0\nsamples = 1\nvalue = [0, 1]", fillcolor="#399de5"] ;
28 -> 30 ;
31 [label="gini = 0.0\nsamples = 2\nvalue = [0, 2]", fillcolor="#399de5"] ;
17 -> 31 ;
32 [label="smoking_status1 <= 0.857\ngini = 0.03\nsamples = 857\nvalue = [844, 13]", fillcolor="#e5833c"] ;
16 -> 32 ;
33 [label="bmi <= -1.169\ngini = 0.022\nsamples = 705\nvalue = [697, 8]", fillcolor="#e5823b"] ;
32 -> 33 ;
34 [label="bmi <= -1.199\ngini = 0.18\nsamples = 10\nvalue = [9, 1]", fillcolor="#e88f4f"] ;
33 -> 34 ;
35 [label="gini = 0.0\nsamples = 7\nvalue = [7, 0]", fillcolor="#e58139"] ;
34 -> 35 ;
36 [label="avg_glucose_level <= -0.172\ngini = 0.444\nsamples = 3\nvalue = [2, 1]", fillcolor="#f2c09c"] ;
34 -> 36 ;
37 [label="gini = 0.0\nsamples = 1\nvalue = [0, 1]", fillcolor="#399de5"] ;
36 -> 37 ;
38 [label="gini = 0.0\nsamples = 2\nvalue = [2, 0]", fillcolor="#e58139"] ;
36 -> 38 ;
39 [label="smoking_status3 <= 0.963\ngini = 0.02\nsamples = 695\nvalue = [688, 7]", fillcolor="#e5823b"] ;
33 -> 39 ;
40 [label="avg_glucose_level <= -0.193\ngini = 0.012\nsamples = 507\nvalue = [504, 3]", fillcolor="#e5823a"] ;
39 -> 40 ;
41 [label="avg_glucose_level <= -0.195\ngini = 0.029\nsamples = 203\nvalue = [200, 3]", fillcolor="#e5833c"] ;
40 -> 41 ;
42 [label="age <= -0.16\ngini = 0.02\nsamples = 202\nvalue = [200, 2]", fillcolor="#e5823b"] ;
41 -> 42 ;
43 [label="bmi <= -0.296\ngini = 0.071\nsamples = 27\nvalue = [26, 1]", fillcolor="#e68641"] ;
42 -> 43 ;
44 [label="bmi <= -0.514\ngini = 0.245\nsamples = 7\nvalue = [6, 1]", fillcolor="#e9965a"] ;
43 -> 44 ;
45 [label="gini = 0.0\nsamples = 6\nvalue = [6, 0]", fillcolor="#e58139"] ;
44 -> 45 ;
46 [label="gini = 0.0\nsamples = 1\nvalue = [0, 1]", fillcolor="#399de5"] ;
44 -> 46 ;
47 [label="gini = 0.0\nsamples = 20\nvalue = [20, 0]", fillcolor="#e58139"] ;
43 -> 47 ;
48 [label="bmi <= 0.367\ngini = 0.011\nsamples = 175\nvalue = [174, 1]", fillcolor="#e5823a"] ;
42 -> 48 ;
49 [label="gini = 0.0\nsamples = 96\nvalue = [96, 0]", fillcolor="#e58139"] ;
48 -> 49 ;
50 [label="bmi <= 0.382\ngini = 0.025\nsamples = 79\nvalue = [78, 1]", fillcolor="#e5833c"] ;
48 -> 50 ;
51 [label="age <= 0.191\ngini = 0.444\nsamples = 3\nvalue = [2, 1]", fillcolor="#f2c09c"] ;
50 -> 51 ;
52 [label="gini = 0.0\nsamples = 1\nvalue = [0, 1]", fillcolor="#399de5"] ;
51 -> 52 ;
53 [label="gini = 0.0\nsamples = 2\nvalue = [2, 0]", fillcolor="#e58139"] ;
51 -> 53 ;
54 [label="gini = 0.0\nsamples = 76\nvalue = [76, 0]", fillcolor="#e58139"] ;
50 -> 54 ;
55 [label="gini = 0.0\nsamples = 1\nvalue = [0, 1]", fillcolor="#399de5"] ;
41 -> 55 ;
56 [label="gini = 0.0\nsamples = 304\nvalue = [304, 0]", fillcolor="#e58139"] ;
40 -> 56 ;
57 [label="avg_glucose_level <= 0.246\ngini = 0.042\nsamples = 188\nvalue = [184, 4]", fillcolor="#e6843d"] ;
39 -> 57 ;
58 [label="gini = 0.0\nsamples = 108\nvalue = [108, 0]", fillcolor="#e58139"] ;
57 -> 58 ;
59 [label="avg_glucose_level <= 0.26\ngini = 0.095\nsamples = 80\nvalue = [76, 4]", fillcolor="#e68843"] ;
57 -> 59 ;
60 [label="gini = 0.0\nsamples = 1\nvalue = [0, 1]", fillcolor="#399de5"] ;
59 -> 60 ;
61 [label="age <= 0.235\ngini = 0.073\nsamples = 79\nvalue = [76, 3]", fillcolor="#e68641"] ;
59 -> 61 ;
62 [label="gini = 0.0\nsamples = 48\nvalue = [48, 0]", fillcolor="#e58139"] ;
61 -> 62 ;
63 [label="age <= 0.279\ngini = 0.175\nsamples = 31\nvalue = [28, 3]", fillcolor="#e88e4e"] ;
61 -> 63 ;
64 [label="bmi <= 0.449\ngini = 0.5\nsamples = 4\nvalue = [2, 2]", fillcolor="#ffffff"] ;
63 -> 64 ;
65 [label="gini = 0.0\nsamples = 2\nvalue = [2, 0]", fillcolor="#e58139"] ;
64 -> 65 ;
66 [label="gini = 0.0\nsamples = 2\nvalue = [0, 2]", fillcolor="#399de5"] ;
64 -> 66 ;
67 [label="age <= 0.323\ngini = 0.071\nsamples = 27\nvalue = [26, 1]", fillcolor="#e68641"] ;
63 -> 67 ;
68 [label="gender <= 0.161\ngini = 0.278\nsamples = 6\nvalue = [5, 1]", fillcolor="#ea9a61"] ;
67 -> 68 ;
69 [label="gini = 0.0\nsamples = 1\nvalue = [0, 1]", fillcolor="#399de5"] ;
68 -> 69 ;
70 [label="gini = 0.0\nsamples = 5\nvalue = [5, 0]", fillcolor="#e58139"] ;
68 -> 70 ;
71 [label="gini = 0.0\nsamples = 21\nvalue = [21, 0]", fillcolor="#e58139"] ;
67 -> 71 ;
72 [label="bmi <= 1.91\ngini = 0.064\nsamples = 152\nvalue = [147, 5]", fillcolor="#e68540"] ;
32 -> 72 ;
73 [label="age <= -0.203\ngini = 0.041\nsamples = 142\nvalue = [139, 3]", fillcolor="#e6843d"] ;
72 -> 73 ;
74 [label="avg_glucose_level <= -0.41\ngini = 0.245\nsamples = 7\nvalue = [6, 1]", fillcolor="#e9965a"] ;
73 -> 74 ;
75 [label="gini = 0.0\nsamples = 1\nvalue = [0, 1]", fillcolor="#399de5"] ;
74 -> 75 ;
76 [label="gini = 0.0\nsamples = 6\nvalue = [6, 0]", fillcolor="#e58139"] ;
74 -> 76 ;
77 [label="avg_glucose_level <= 0.042\ngini = 0.029\nsamples = 135\nvalue = [133, 2]", fillcolor="#e5833c"] ;
73 -> 77 ;
78 [label="gini = 0.0\nsamples = 78\nvalue = [78, 0]", fillcolor="#e58139"] ;
77 -> 78 ;
79 [label="avg_glucose_level <= 0.067\ngini = 0.068\nsamples = 57\nvalue = [55, 2]", fillcolor="#e68640"] ;
77 -> 79 ;
80 [label="gini = 0.0\nsamples = 1\nvalue = [0, 1]", fillcolor="#399de5"] ;
79 -> 80 ;
81 [label="bmi <= -0.13\ngini = 0.035\nsamples = 56\nvalue = [55, 1]", fillcolor="#e5833d"] ;
79 -> 81 ;
82 [label="bmi <= -0.16\ngini = 0.117\nsamples = 16\nvalue = [15, 1]", fillcolor="#e78946"] ;
81 -> 82 ;
83 [label="gini = 0.0\nsamples = 14\nvalue = [14, 0]", fillcolor="#e58139"] ;
82 -> 83 ;
84 [label="age <= 0.367\ngini = 0.5\nsamples = 2\nvalue = [1, 1]", fillcolor="#ffffff"] ;
82 -> 84 ;
85 [label="gini = 0.0\nsamples = 1\nvalue = [0, 1]", fillcolor="#399de5"] ;
84 -> 85 ;
86 [label="gini = 0.0\nsamples = 1\nvalue = [1, 0]", fillcolor="#e58139"] ;
84 -> 86 ;
87 [label="gini = 0.0\nsamples = 40\nvalue = [40, 0]", fillcolor="#e58139"] ;
81 -> 87 ;
88 [label="bmi <= 1.985\ngini = 0.32\nsamples = 10\nvalue = [8, 2]", fillcolor="#eca06a"] ;
72 -> 88 ;
89 [label="gini = 0.0\nsamples = 1\nvalue = [0, 1]", fillcolor="#399de5"] ;
88 -> 89 ;
90 [label="hypertension <= 1.393\ngini = 0.198\nsamples = 9\nvalue = [8, 1]", fillcolor="#e89152"] ;
88 -> 90 ;
91 [label="gini = 0.0\nsamples = 7\nvalue = [7, 0]", fillcolor="#e58139"] ;
90 -> 91 ;
92 [label="work_type3 <= 0.935\ngini = 0.5\nsamples = 2\nvalue = [1, 1]", fillcolor="#ffffff"] ;
90 -> 92 ;
93 [label="gini = 0.0\nsamples = 1\nvalue = [0, 1]", fillcolor="#399de5"] ;
92 -> 93 ;
94 [label="gini = 0.0\nsamples = 1\nvalue = [1, 0]", fillcolor="#e58139"] ;
92 -> 94 ;
95 [label="work_type3 <= 0.935\ngini = 0.375\nsamples = 4\nvalue = [3, 1]", fillcolor="#eeab7b"] ;
15 -> 95 ;
96 [label="gini = 0.0\nsamples = 3\nvalue = [3, 0]", fillcolor="#e58139"] ;
95 -> 96 ;
97 [label="gini = 0.0\nsamples = 1\nvalue = [0, 1]", fillcolor="#399de5"] ;
95 -> 97 ;
98 [label="age <= 0.016\ngini = 0.408\nsamples = 7\nvalue = [5, 2]", fillcolor="#efb388"] ;
2 -> 98 ;
99 [label="gini = 0.0\nsamples = 4\nvalue = [4, 0]", fillcolor="#e58139"] ;
98 -> 99 ;
100 [label="smoking_status1 <= 0.857\ngini = 0.444\nsamples = 3\nvalue = [1, 2]", fillcolor="#9ccef2"] ;
98 -> 100 ;
101 [label="gini = 0.0\nsamples = 2\nvalue = [0, 2]", fillcolor="#399de5"] ;
100 -> 101 ;
102 [label="gini = 0.0\nsamples = 1\nvalue = [1, 0]", fillcolor="#e58139"] ;
100 -> 102 ;
103 [label="avg_glucose_level <= 0.533\ngini = 0.129\nsamples = 778\nvalue = [724, 54]", fillcolor="#e78a48"] ;
1 -> 103 ;
104 [label="age <= 0.762\ngini = 0.069\nsamples = 612\nvalue = [590, 22]", fillcolor="#e68640"] ;
103 -> 104 ;
105 [label="avg_glucose_level <= 0.235\ngini = 0.093\nsamples = 346\nvalue = [329, 17]", fillcolor="#e68843"] ;
104 -> 105 ;
106 [label="avg_glucose_level <= 0.233\ngini = 0.117\nsamples = 272\nvalue = [255, 17]", fillcolor="#e78946"] ;
105 -> 106 ;
107 [label="avg_glucose_level <= 0.213\ngini = 0.111\nsamples = 271\nvalue = [255, 16]", fillcolor="#e78945"] ;
106 -> 107 ;
108 [label="bmi <= -0.1\ngini = 0.106\nsamples = 268\nvalue = [253, 15]", fillcolor="#e78845"] ;
107 -> 108 ;
109 [label="avg_glucose_level <= 0.006\ngini = 0.026\nsamples = 77\nvalue = [76, 1]", fillcolor="#e5833c"] ;
108 -> 109 ;
110 [label="gini = 0.0\nsamples = 68\nvalue = [68, 0]", fillcolor="#e58139"] ;
109 -> 110 ;
111 [label="avg_glucose_level <= 0.042\ngini = 0.198\nsamples = 9\nvalue = [8, 1]", fillcolor="#e89152"] ;
109 -> 111 ;
112 [label="gini = 0.0\nsamples = 1\nvalue = [0, 1]", fillcolor="#399de5"] ;
111 -> 112 ;
113 [label="gini = 0.0\nsamples = 8\nvalue = [8, 0]", fillcolor="#e58139"] ;
111 -> 113 ;
114 [label="bmi <= -0.085\ngini = 0.136\nsamples = 191\nvalue = [177, 14]", fillcolor="#e78b49"] ;
108 -> 114 ;
115 [label="hypertension <= 1.393\ngini = 0.5\nsamples = 2\nvalue = [1, 1]", fillcolor="#ffffff"] ;
114 -> 115 ;
116 [label="gini = 0.0\nsamples = 1\nvalue = [1, 0]", fillcolor="#e58139"] ;
115 -> 116 ;
117 [label="gini = 0.0\nsamples = 1\nvalue = [0, 1]", fillcolor="#399de5"] ;
115 -> 117 ;
118 [label="ever_married <= -0.319\ngini = 0.128\nsamples = 189\nvalue = [176, 13]", fillcolor="#e78a48"] ;
114 -> 118 ;
119 [label="age <= 0.586\ngini = 0.291\nsamples = 17\nvalue = [14, 3]", fillcolor="#eb9c63"] ;
118 -> 119 ;
120 [label="gini = 0.0\nsamples = 5\nvalue = [5, 0]", fillcolor="#e58139"] ;
119 -> 120 ;
121 [label="work_type3 <= 0.935\ngini = 0.375\nsamples = 12\nvalue = [9, 3]", fillcolor="#eeab7b"] ;
119 -> 121 ;
122 [label="avg_glucose_level <= -0.264\ngini = 0.298\nsamples = 11\nvalue = [9, 2]", fillcolor="#eb9d65"] ;
121 -> 122 ;
123 [label="gini = 0.0\nsamples = 5\nvalue = [5, 0]", fillcolor="#e58139"] ;
122 -> 123 ;
124 [label="smoking_status3 <= 0.963\ngini = 0.444\nsamples = 6\nvalue = [4, 2]", fillcolor="#f2c09c"] ;
122 -> 124 ;
125 [label="smoking_status1 <= 0.857\ngini = 0.444\nsamples = 3\nvalue = [1, 2]", fillcolor="#9ccef2"] ;
124 -> 125 ;
126 [label="gini = 0.0\nsamples = 2\nvalue = [0, 2]", fillcolor="#399de5"] ;
125 -> 126 ;
127 [label="gini = 0.0\nsamples = 1\nvalue = [1, 0]", fillcolor="#e58139"] ;
125 -> 127 ;
128 [label="gini = 0.0\nsamples = 3\nvalue = [3, 0]", fillcolor="#e58139"] ;
124 -> 128 ;
129 [label="gini = 0.0\nsamples = 1\nvalue = [0, 1]", fillcolor="#399de5"] ;
121 -> 129 ;
130 [label="bmi <= 0.088\ngini = 0.11\nsamples = 172\nvalue = [162, 10]", fillcolor="#e78945"] ;
118 -> 130 ;
131 [label="bmi <= 0.08\ngini = 0.238\nsamples = 29\nvalue = [25, 4]", fillcolor="#e99559"] ;
130 -> 131 ;
132 [label="age <= 0.499\ngini = 0.087\nsamples = 22\nvalue = [21, 1]", fillcolor="#e68742"] ;
131 -> 132 ;
133 [label="smoking_status2 <= 0.273\ngini = 0.32\nsamples = 5\nvalue = [4, 1]", fillcolor="#eca06a"] ;
132 -> 133 ;
134 [label="gini = 0.0\nsamples = 4\nvalue = [4, 0]", fillcolor="#e58139"] ;
133 -> 134 ;
135 [label="gini = 0.0\nsamples = 1\nvalue = [0, 1]", fillcolor="#399de5"] ;
133 -> 135 ;
136 [label="gini = 0.0\nsamples = 17\nvalue = [17, 0]", fillcolor="#e58139"] ;
132 -> 136 ;
137 [label="avg_glucose_level <= -0.196\ngini = 0.49\nsamples = 7\nvalue = [4, 3]", fillcolor="#f8e0ce"] ;
131 -> 137 ;
138 [label="smoking_status2 <= 0.273\ngini = 0.375\nsamples = 4\nvalue = [1, 3]", fillcolor="#7bbeee"] ;
137 -> 138 ;
139 [label="gini = 0.0\nsamples = 3\nvalue = [0, 3]", fillcolor="#399de5"] ;
138 -> 139 ;
140 [label="gini = 0.0\nsamples = 1\nvalue = [1, 0]", fillcolor="#e58139"] ;
138 -> 140 ;
141 [label="gini = 0.0\nsamples = 3\nvalue = [3, 0]", fillcolor="#e58139"] ;
137 -> 141 ;
142 [label="avg_glucose_level <= 0.174\ngini = 0.08\nsamples = 143\nvalue = [137, 6]", fillcolor="#e68742"] ;
130 -> 142 ;
143 [label="avg_glucose_level <= -0.289\ngini = 0.069\nsamples = 140\nvalue = [135, 5]", fillcolor="#e68640"] ;
142 -> 143 ;
144 [label="hypertension <= 1.393\ngini = 0.024\nsamples = 83\nvalue = [82, 1]", fillcolor="#e5833b"] ;
143 -> 144 ;
145 [label="gini = 0.0\nsamples = 75\nvalue = [75, 0]", fillcolor="#e58139"] ;
144 -> 145 ;
146 [label="avg_glucose_level <= -0.907\ngini = 0.219\nsamples = 8\nvalue = [7, 1]", fillcolor="#e99355"] ;
144 -> 146 ;
147 [label="bmi <= 0.713\ngini = 0.444\nsamples = 3\nvalue = [2, 1]", fillcolor="#f2c09c"] ;
146 -> 147 ;
148 [label="gini = 0.0\nsamples = 1\nvalue = [0, 1]", fillcolor="#399de5"] ;
147 -> 148 ;
149 [label="gini = 0.0\nsamples = 2\nvalue = [2, 0]", fillcolor="#e58139"] ;
147 -> 149 ;
150 [label="gini = 0.0\nsamples = 5\nvalue = [5, 0]", fillcolor="#e58139"] ;
146 -> 150 ;
151 [label="avg_glucose_level <= -0.278\ngini = 0.131\nsamples = 57\nvalue = [53, 4]", fillcolor="#e78b48"] ;
143 -> 151 ;
152 [label="age <= 0.543\ngini = 0.444\nsamples = 3\nvalue = [1, 2]", fillcolor="#9ccef2"] ;
151 -> 152 ;
153 [label="gini = 0.0\nsamples = 1\nvalue = [1, 0]", fillcolor="#e58139"] ;
152 -> 153 ;
154 [label="gini = 0.0\nsamples = 2\nvalue = [0, 2]", fillcolor="#399de5"] ;
152 -> 154 ;
155 [label="smoking_status3 <= 0.963\ngini = 0.071\nsamples = 54\nvalue = [52, 2]", fillcolor="#e68641"] ;
151 -> 155 ;
156 [label="gini = 0.0\nsamples = 43\nvalue = [43, 0]", fillcolor="#e58139"] ;
155 -> 156 ;
157 [label="gender <= 0.161\ngini = 0.298\nsamples = 11\nvalue = [9, 2]", fillcolor="#eb9d65"] ;
155 -> 157 ;
158 [label="gini = 0.0\nsamples = 7\nvalue = [7, 0]", fillcolor="#e58139"] ;
157 -> 158 ;
159 [label="age <= 0.608\ngini = 0.5\nsamples = 4\nvalue = [2, 2]", fillcolor="#ffffff"] ;
157 -> 159 ;
160 [label="avg_glucose_level <= -0.174\ngini = 0.444\nsamples = 3\nvalue = [2, 1]", fillcolor="#f2c09c"] ;
159 -> 160 ;
161 [label="gini = 0.0\nsamples = 1\nvalue = [0, 1]", fillcolor="#399de5"] ;
160 -> 161 ;
162 [label="gini = 0.0\nsamples = 2\nvalue = [2, 0]", fillcolor="#e58139"] ;
160 -> 162 ;
163 [label="gini = 0.0\nsamples = 1\nvalue = [0, 1]", fillcolor="#399de5"] ;
159 -> 163 ;
164 [label="avg_glucose_level <= 0.191\ngini = 0.444\nsamples = 3\nvalue = [2, 1]", fillcolor="#f2c09c"] ;
142 -> 164 ;
165 [label="gini = 0.0\nsamples = 1\nvalue = [0, 1]", fillcolor="#399de5"] ;
164 -> 165 ;
166 [label="gini = 0.0\nsamples = 2\nvalue = [2, 0]", fillcolor="#e58139"] ;
164 -> 166 ;
167 [label="gender <= 0.161\ngini = 0.444\nsamples = 3\nvalue = [2, 1]", fillcolor="#f2c09c"] ;
107 -> 167 ;
168 [label="gini = 0.0\nsamples = 2\nvalue = [2, 0]", fillcolor="#e58139"] ;
167 -> 168 ;
169 [label="gini = 0.0\nsamples = 1\nvalue = [0, 1]", fillcolor="#399de5"] ;
167 -> 169 ;
170 [label="gini = 0.0\nsamples = 1\nvalue = [0, 1]", fillcolor="#399de5"] ;
106 -> 170 ;
171 [label="gini = 0.0\nsamples = 74\nvalue = [74, 0]", fillcolor="#e58139"] ;
105 -> 171 ;
172 [label="age <= 0.937\ngini = 0.037\nsamples = 266\nvalue = [261, 5]", fillcolor="#e5833d"] ;
104 -> 172 ;
173 [label="gini = 0.0\nsamples = 163\nvalue = [163, 0]", fillcolor="#e58139"] ;
172 -> 173 ;
174 [label="bmi <= 0.088\ngini = 0.092\nsamples = 103\nvalue = [98, 5]", fillcolor="#e68743"] ;
172 -> 174 ;
175 [label="avg_glucose_level <= -0.73\ngini = 0.201\nsamples = 44\nvalue = [39, 5]", fillcolor="#e89152"] ;
174 -> 175 ;
176 [label="avg_glucose_level <= -1.46\ngini = 0.397\nsamples = 11\nvalue = [8, 3]", fillcolor="#efb083"] ;
175 -> 176 ;
177 [label="gini = 0.0\nsamples = 5\nvalue = [5, 0]", fillcolor="#e58139"] ;
176 -> 177 ;
178 [label="Residence_type <= -0.024\ngini = 0.5\nsamples = 6\nvalue = [3, 3]", fillcolor="#ffffff"] ;
176 -> 178 ;
179 [label="gini = 0.0\nsamples = 2\nvalue = [0, 2]", fillcolor="#399de5"] ;
178 -> 179 ;
180 [label="bmi <= 0.072\ngini = 0.375\nsamples = 4\nvalue = [3, 1]", fillcolor="#eeab7b"] ;
178 -> 180 ;
181 [label="gini = 0.0\nsamples = 3\nvalue = [3, 0]", fillcolor="#e58139"] ;
180 -> 181 ;
182 [label="gini = 0.0\nsamples = 1\nvalue = [0, 1]", fillcolor="#399de5"] ;
180 -> 182 ;
183 [label="avg_glucose_level <= 0.385\ngini = 0.114\nsamples = 33\nvalue = [31, 2]", fillcolor="#e78946"] ;
175 -> 183 ;
184 [label="gini = 0.0\nsamples = 27\nvalue = [27, 0]", fillcolor="#e58139"] ;
183 -> 184 ;
185 [label="avg_glucose_level <= 0.421\ngini = 0.444\nsamples = 6\nvalue = [4, 2]", fillcolor="#f2c09c"] ;
183 -> 185 ;
186 [label="gini = 0.0\nsamples = 2\nvalue = [0, 2]", fillcolor="#399de5"] ;
185 -> 186 ;
187 [label="gini = 0.0\nsamples = 4\nvalue = [4, 0]", fillcolor="#e58139"] ;
185 -> 187 ;
188 [label="gini = 0.0\nsamples = 59\nvalue = [59, 0]", fillcolor="#e58139"] ;
174 -> 188 ;
189 [label="avg_glucose_level <= 0.62\ngini = 0.311\nsamples = 166\nvalue = [134, 32]", fillcolor="#eb9f68"] ;
103 -> 189 ;
190 [label="bmi <= -0.115\ngini = 0.42\nsamples = 30\nvalue = [9, 21]", fillcolor="#8ec7f0"] ;
189 -> 190 ;
191 [label="avg_glucose_level <= 0.583\ngini = 0.375\nsamples = 8\nvalue = [6, 2]", fillcolor="#eeab7b"] ;
190 -> 191 ;
192 [label="gini = 0.0\nsamples = 5\nvalue = [5, 0]", fillcolor="#e58139"] ;
191 -> 192 ;
193 [label="work_type3 <= 0.935\ngini = 0.444\nsamples = 3\nvalue = [1, 2]", fillcolor="#9ccef2"] ;
191 -> 193 ;
194 [label="gini = 0.0\nsamples = 2\nvalue = [0, 2]", fillcolor="#399de5"] ;
193 -> 194 ;
195 [label="gini = 0.0\nsamples = 1\nvalue = [1, 0]", fillcolor="#e58139"] ;
193 -> 195 ;
196 [label="bmi <= 1.263\ngini = 0.236\nsamples = 22\nvalue = [3, 19]", fillcolor="#58ace9"] ;
190 -> 196 ;
197 [label="gini = 0.0\nsamples = 14\nvalue = [0, 14]", fillcolor="#399de5"] ;
196 -> 197 ;
198 [label="bmi <= 1.631\ngini = 0.469\nsamples = 8\nvalue = [3, 5]", fillcolor="#b0d8f5"] ;
196 -> 198 ;
199 [label="avg_glucose_level <= 0.611\ngini = 0.375\nsamples = 4\nvalue = [3, 1]", fillcolor="#eeab7b"] ;
198 -> 199 ;
200 [label="gini = 0.0\nsamples = 3\nvalue = [3, 0]", fillcolor="#e58139"] ;
199 -> 200 ;
201 [label="gini = 0.0\nsamples = 1\nvalue = [0, 1]", fillcolor="#399de5"] ;
199 -> 201 ;
202 [label="gini = 0.0\nsamples = 4\nvalue = [0, 4]", fillcolor="#399de5"] ;
198 -> 202 ;
203 [label="heart_disease <= 1.932\ngini = 0.149\nsamples = 136\nvalue = [125, 11]", fillcolor="#e78c4a"] ;
189 -> 203 ;
204 [label="smoking_status1 <= 0.857\ngini = 0.104\nsamples = 127\nvalue = [120, 7]", fillcolor="#e78845"] ;
203 -> 204 ;
205 [label="avg_glucose_level <= 3.05\ngini = 0.059\nsamples = 99\nvalue = [96, 3]", fillcolor="#e6853f"] ;
204 -> 205 ;
206 [label="avg_glucose_level <= 0.849\ngini = 0.041\nsamples = 96\nvalue = [94, 2]", fillcolor="#e6843d"] ;
205 -> 206 ;
207 [label="avg_glucose_level <= 0.839\ngini = 0.165\nsamples = 22\nvalue = [20, 2]", fillcolor="#e88e4d"] ;
206 -> 207 ;
208 [label="age <= 0.85\ngini = 0.091\nsamples = 21\nvalue = [20, 1]", fillcolor="#e68743"] ;
207 -> 208 ;
209 [label="gini = 0.0\nsamples = 15\nvalue = [15, 0]", fillcolor="#e58139"] ;
208 -> 209 ;
210 [label="age <= 0.894\ngini = 0.278\nsamples = 6\nvalue = [5, 1]", fillcolor="#ea9a61"] ;
208 -> 210 ;
211 [label="smoking_status3 <= 0.963\ngini = 0.5\nsamples = 2\nvalue = [1, 1]", fillcolor="#ffffff"] ;
210 -> 211 ;
212 [label="gini = 0.0\nsamples = 1\nvalue = [0, 1]", fillcolor="#399de5"] ;
211 -> 212 ;
213 [label="gini = 0.0\nsamples = 1\nvalue = [1, 0]", fillcolor="#e58139"] ;
211 -> 213 ;
214 [label="gini = 0.0\nsamples = 4\nvalue = [4, 0]", fillcolor="#e58139"] ;
210 -> 214 ;
215 [label="gini = 0.0\nsamples = 1\nvalue = [0, 1]", fillcolor="#399de5"] ;
207 -> 215 ;
216 [label="gini = 0.0\nsamples = 74\nvalue = [74, 0]", fillcolor="#e58139"] ;
206 -> 216 ;
217 [label="age <= 0.696\ngini = 0.444\nsamples = 3\nvalue = [2, 1]", fillcolor="#f2c09c"] ;
205 -> 217 ;
218 [label="gini = 0.0\nsamples = 1\nvalue = [0, 1]", fillcolor="#399de5"] ;
217 -> 218 ;
219 [label="gini = 0.0\nsamples = 2\nvalue = [2, 0]", fillcolor="#e58139"] ;
217 -> 219 ;
220 [label="bmi <= 0.065\ngini = 0.245\nsamples = 28\nvalue = [24, 4]", fillcolor="#e9965a"] ;
204 -> 220 ;
221 [label="gini = 0.0\nsamples = 12\nvalue = [12, 0]", fillcolor="#e58139"] ;
220 -> 221 ;
222 [label="age <= 0.828\ngini = 0.375\nsamples = 16\nvalue = [12, 4]", fillcolor="#eeab7b"] ;
220 -> 222 ;
223 [label="avg_glucose_level <= 0.869\ngini = 0.245\nsamples = 14\nvalue = [12, 2]", fillcolor="#e9965a"] ;
222 -> 223 ;
224 [label="Residence_type <= -0.024\ngini = 0.5\nsamples = 4\nvalue = [2, 2]", fillcolor="#ffffff"] ;
223 -> 224 ;
225 [label="gini = 0.0\nsamples = 2\nvalue = [2, 0]", fillcolor="#e58139"] ;
224 -> 225 ;
226 [label="gini = 0.0\nsamples = 2\nvalue = [0, 2]", fillcolor="#399de5"] ;
224 -> 226 ;
227 [label="gini = 0.0\nsamples = 10\nvalue = [10, 0]", fillcolor="#e58139"] ;
223 -> 227 ;
228 [label="gini = 0.0\nsamples = 2\nvalue = [0, 2]", fillcolor="#399de5"] ;
222 -> 228 ;
229 [label="age <= 0.718\ngini = 0.494\nsamples = 9\nvalue = [5, 4]", fillcolor="#fae6d7"] ;
203 -> 229 ;
230 [label="gini = 0.0\nsamples = 3\nvalue = [3, 0]", fillcolor="#e58139"] ;
229 -> 230 ;
231 [label="age <= 0.828\ngini = 0.444\nsamples = 6\nvalue = [2, 4]", fillcolor="#9ccef2"] ;
229 -> 231 ;
232 [label="gini = 0.0\nsamples = 3\nvalue = [0, 3]", fillcolor="#399de5"] ;
231 -> 232 ;
233 [label="work_type3 <= 0.935\ngini = 0.444\nsamples = 3\nvalue = [2, 1]", fillcolor="#f2c09c"] ;
231 -> 233 ;
234 [label="gini = 0.0\nsamples = 2\nvalue = [2, 0]", fillcolor="#e58139"] ;
233 -> 234 ;
235 [label="gini = 0.0\nsamples = 1\nvalue = [0, 1]", fillcolor="#399de5"] ;
233 -> 235 ;
236 [label="avg_glucose_level <= 0.535\ngini = 0.286\nsamples = 682\nvalue = [564, 118]", fillcolor="#ea9b62"] ;
0 -> 236 [labeldistance=2.5, labelangle=-45, headlabel="False"] ;
237 [label="avg_glucose_level <= -0.443\ngini = 0.185\nsamples = 525\nvalue = [471, 54]", fillcolor="#e88f50"] ;
236 -> 237 ;
238 [label="hypertension <= 1.393\ngini = 0.299\nsamples = 208\nvalue = [170, 38]", fillcolor="#eb9d65"] ;
237 -> 238 ;
239 [label="avg_glucose_level <= -0.453\ngini = 0.246\nsamples = 167\nvalue = [143, 24]", fillcolor="#e9965a"] ;
238 -> 239 ;
240 [label="gender <= 0.161\ngini = 0.239\nsamples = 166\nvalue = [143, 23]", fillcolor="#e99559"] ;
239 -> 240 ;
241 [label="avg_glucose_level <= -1.382\ngini = 0.286\nsamples = 110\nvalue = [91, 19]", fillcolor="#ea9b62"] ;
240 -> 241 ;
242 [label="smoking_status1 <= 0.857\ngini = 0.444\nsamples = 21\nvalue = [14, 7]", fillcolor="#f2c09c"] ;
241 -> 242 ;
243 [label="avg_glucose_level <= -1.413\ngini = 0.305\nsamples = 16\nvalue = [13, 3]", fillcolor="#eb9e67"] ;
242 -> 243 ;
244 [label="work_type2 <= -0.144\ngini = 0.231\nsamples = 15\nvalue = [13, 2]", fillcolor="#e99457"] ;
243 -> 244 ;
245 [label="gini = 0.0\nsamples = 11\nvalue = [11, 0]", fillcolor="#e58139"] ;
244 -> 245 ;
246 [label="smoking_status3 <= 0.963\ngini = 0.5\nsamples = 4\nvalue = [2, 2]", fillcolor="#ffffff"] ;
244 -> 246 ;
247 [label="avg_glucose_level <= -1.62\ngini = 0.444\nsamples = 3\nvalue = [1, 2]", fillcolor="#9ccef2"] ;
246 -> 247 ;
248 [label="gini = 0.0\nsamples = 1\nvalue = [1, 0]", fillcolor="#e58139"] ;
247 -> 248 ;
249 [label="gini = 0.0\nsamples = 2\nvalue = [0, 2]", fillcolor="#399de5"] ;
247 -> 249 ;
250 [label="gini = 0.0\nsamples = 1\nvalue = [1, 0]", fillcolor="#e58139"] ;
246 -> 250 ;
251 [label="gini = 0.0\nsamples = 1\nvalue = [0, 1]", fillcolor="#399de5"] ;
243 -> 251 ;
252 [label="avg_glucose_level <= -1.602\ngini = 0.32\nsamples = 5\nvalue = [1, 4]", fillcolor="#6ab6ec"] ;
242 -> 252 ;
253 [label="gini = 0.0\nsamples = 1\nvalue = [1, 0]", fillcolor="#e58139"] ;
252 -> 253 ;
254 [label="gini = 0.0\nsamples = 4\nvalue = [0, 4]", fillcolor="#399de5"] ;
252 -> 254 ;
255 [label="avg_glucose_level <= -0.822\ngini = 0.233\nsamples = 89\nvalue = [77, 12]", fillcolor="#e99558"] ;
241 -> 255 ;
256 [label="avg_glucose_level <= -1.148\ngini = 0.127\nsamples = 44\nvalue = [41, 3]", fillcolor="#e78a47"] ;
255 -> 256 ;
257 [label="avg_glucose_level <= -1.209\ngini = 0.298\nsamples = 11\nvalue = [9, 2]", fillcolor="#eb9d65"] ;
256 -> 257 ;
258 [label="gini = 0.0\nsamples = 9\nvalue = [9, 0]", fillcolor="#e58139"] ;
257 -> 258 ;
259 [label="gini = 0.0\nsamples = 2\nvalue = [0, 2]", fillcolor="#399de5"] ;
257 -> 259 ;
260 [label="bmi <= 0.871\ngini = 0.059\nsamples = 33\nvalue = [32, 1]", fillcolor="#e6853f"] ;
256 -> 260 ;
261 [label="gini = 0.0\nsamples = 26\nvalue = [26, 0]", fillcolor="#e58139"] ;
260 -> 261 ;
262 [label="bmi <= 0.999\ngini = 0.245\nsamples = 7\nvalue = [6, 1]", fillcolor="#e9965a"] ;
260 -> 262 ;
263 [label="gini = 0.0\nsamples = 1\nvalue = [0, 1]", fillcolor="#399de5"] ;
262 -> 263 ;
264 [label="gini = 0.0\nsamples = 6\nvalue = [6, 0]", fillcolor="#e58139"] ;
262 -> 264 ;
265 [label="avg_glucose_level <= -0.806\ngini = 0.32\nsamples = 45\nvalue = [36, 9]", fillcolor="#eca06a"] ;
255 -> 265 ;
266 [label="gini = 0.0\nsamples = 1\nvalue = [0, 1]", fillcolor="#399de5"] ;
265 -> 266 ;
267 [label="age <= 1.596\ngini = 0.298\nsamples = 44\nvalue = [36, 8]", fillcolor="#eb9d65"] ;
265 -> 267 ;
268 [label="ever_married <= -0.319\ngini = 0.208\nsamples = 34\nvalue = [30, 4]", fillcolor="#e89253"] ;
267 -> 268 ;
269 [label="bmi <= 0.2\ngini = 0.444\nsamples = 6\nvalue = [4, 2]", fillcolor="#f2c09c"] ;
268 -> 269 ;
270 [label="gini = 0.0\nsamples = 2\nvalue = [0, 2]", fillcolor="#399de5"] ;
269 -> 270 ;
271 [label="gini = 0.0\nsamples = 4\nvalue = [4, 0]", fillcolor="#e58139"] ;
269 -> 271 ;
272 [label="avg_glucose_level <= -0.625\ngini = 0.133\nsamples = 28\nvalue = [26, 2]", fillcolor="#e78b48"] ;
268 -> 272 ;
273 [label="smoking_status1 <= 0.857\ngini = 0.346\nsamples = 9\nvalue = [7, 2]", fillcolor="#eca572"] ;
272 -> 273 ;
274 [label="gini = 0.0\nsamples = 6\nvalue = [6, 0]", fillcolor="#e58139"] ;
273 -> 274 ;
275 [label="work_type2 <= -0.144\ngini = 0.444\nsamples = 3\nvalue = [1, 2]", fillcolor="#9ccef2"] ;
273 -> 275 ;
276 [label="gini = 0.0\nsamples = 2\nvalue = [0, 2]", fillcolor="#399de5"] ;
275 -> 276 ;
277 [label="gini = 0.0\nsamples = 1\nvalue = [1, 0]", fillcolor="#e58139"] ;
275 -> 277 ;
278 [label="gini = 0.0\nsamples = 19\nvalue = [19, 0]", fillcolor="#e58139"] ;
272 -> 278 ;
279 [label="Residence_type <= -0.024\ngini = 0.48\nsamples = 10\nvalue = [6, 4]", fillcolor="#f6d5bd"] ;
267 -> 279 ;
280 [label="gini = 0.0\nsamples = 3\nvalue = [0, 3]", fillcolor="#399de5"] ;
279 -> 280 ;
281 [label="bmi <= 0.848\ngini = 0.245\nsamples = 7\nvalue = [6, 1]", fillcolor="#e9965a"] ;
279 -> 281 ;
282 [label="gini = 0.0\nsamples = 6\nvalue = [6, 0]", fillcolor="#e58139"] ;
281 -> 282 ;
283 [label="gini = 0.0\nsamples = 1\nvalue = [0, 1]", fillcolor="#399de5"] ;
281 -> 283 ;
284 [label="smoking_status3 <= 0.963\ngini = 0.133\nsamples = 56\nvalue = [52, 4]", fillcolor="#e78b48"] ;
240 -> 284 ;
285 [label="age <= 1.64\ngini = 0.046\nsamples = 42\nvalue = [41, 1]", fillcolor="#e6843e"] ;
284 -> 285 ;
286 [label="gini = 0.0\nsamples = 35\nvalue = [35, 0]", fillcolor="#e58139"] ;
285 -> 286 ;
287 [label="avg_glucose_level <= -0.946\ngini = 0.245\nsamples = 7\nvalue = [6, 1]", fillcolor="#e9965a"] ;
285 -> 287 ;
288 [label="gini = 0.0\nsamples = 5\nvalue = [5, 0]", fillcolor="#e58139"] ;
287 -> 288 ;
289 [label="Residence_type <= -0.024\ngini = 0.5\nsamples = 2\nvalue = [1, 1]", fillcolor="#ffffff"] ;
287 -> 289 ;
290 [label="gini = 0.0\nsamples = 1\nvalue = [1, 0]", fillcolor="#e58139"] ;
289 -> 290 ;
291 [label="gini = 0.0\nsamples = 1\nvalue = [0, 1]", fillcolor="#399de5"] ;
289 -> 291 ;
292 [label="Residence_type <= -0.024\ngini = 0.337\nsamples = 14\nvalue = [11, 3]", fillcolor="#eca36f"] ;
284 -> 292 ;
293 [label="gini = 0.0\nsamples = 6\nvalue = [6, 0]", fillcolor="#e58139"] ;
292 -> 293 ;
294 [label="avg_glucose_level <= -1.202\ngini = 0.469\nsamples = 8\nvalue = [5, 3]", fillcolor="#f5cdb0"] ;
292 -> 294 ;
295 [label="gini = 0.0\nsamples = 4\nvalue = [4, 0]", fillcolor="#e58139"] ;
294 -> 295 ;
296 [label="bmi <= -0.627\ngini = 0.375\nsamples = 4\nvalue = [1, 3]", fillcolor="#7bbeee"] ;
294 -> 296 ;
297 [label="gini = 0.0\nsamples = 1\nvalue = [1, 0]", fillcolor="#e58139"] ;
296 -> 297 ;
298 [label="gini = 0.0\nsamples = 3\nvalue = [0, 3]", fillcolor="#399de5"] ;
296 -> 298 ;
299 [label="gini = 0.0\nsamples = 1\nvalue = [0, 1]", fillcolor="#399de5"] ;
239 -> 299 ;
300 [label="avg_glucose_level <= -1.223\ngini = 0.45\nsamples = 41\nvalue = [27, 14]", fillcolor="#f2c2a0"] ;
238 -> 300 ;
301 [label="work_type3 <= 0.935\ngini = 0.231\nsamples = 15\nvalue = [13, 2]", fillcolor="#e99457"] ;
300 -> 301 ;
302 [label="gini = 0.0\nsamples = 9\nvalue = [9, 0]", fillcolor="#e58139"] ;
301 -> 302 ;
303 [label="bmi <= 0.103\ngini = 0.444\nsamples = 6\nvalue = [4, 2]", fillcolor="#f2c09c"] ;
301 -> 303 ;
304 [label="Residence_type <= -0.024\ngini = 0.444\nsamples = 3\nvalue = [1, 2]", fillcolor="#9ccef2"] ;
303 -> 304 ;
305 [label="gini = 0.0\nsamples = 2\nvalue = [0, 2]", fillcolor="#399de5"] ;
304 -> 305 ;
306 [label="gini = 0.0\nsamples = 1\nvalue = [1, 0]", fillcolor="#e58139"] ;
304 -> 306 ;
307 [label="gini = 0.0\nsamples = 3\nvalue = [3, 0]", fillcolor="#e58139"] ;
303 -> 307 ;
308 [label="gender <= 0.161\ngini = 0.497\nsamples = 26\nvalue = [14, 12]", fillcolor="#fbede3"] ;
300 -> 308 ;
309 [label="age <= 1.596\ngini = 0.426\nsamples = 13\nvalue = [4, 9]", fillcolor="#91c9f1"] ;
308 -> 309 ;
310 [label="age <= 1.398\ngini = 0.5\nsamples = 8\nvalue = [4, 4]", fillcolor="#ffffff"] ;
309 -> 310 ;
311 [label="avg_glucose_level <= -1.122\ngini = 0.32\nsamples = 5\nvalue = [1, 4]", fillcolor="#6ab6ec"] ;
310 -> 311 ;
312 [label="gini = 0.0\nsamples = 1\nvalue = [1, 0]", fillcolor="#e58139"] ;
311 -> 312 ;
313 [label="gini = 0.0\nsamples = 4\nvalue = [0, 4]", fillcolor="#399de5"] ;
311 -> 313 ;
314 [label="gini = 0.0\nsamples = 3\nvalue = [3, 0]", fillcolor="#e58139"] ;
310 -> 314 ;
315 [label="gini = 0.0\nsamples = 5\nvalue = [0, 5]", fillcolor="#399de5"] ;
309 -> 315 ;
316 [label="work_type2 <= -0.144\ngini = 0.355\nsamples = 13\nvalue = [10, 3]", fillcolor="#eda774"] ;
308 -> 316 ;
317 [label="gini = 0.0\nsamples = 6\nvalue = [6, 0]", fillcolor="#e58139"] ;
316 -> 317 ;
318 [label="age <= 1.267\ngini = 0.49\nsamples = 7\nvalue = [4, 3]", fillcolor="#f8e0ce"] ;
316 -> 318 ;
319 [label="gini = 0.0\nsamples = 3\nvalue = [3, 0]", fillcolor="#e58139"] ;
318 -> 319 ;
320 [label="bmi <= 0.539\ngini = 0.375\nsamples = 4\nvalue = [1, 3]", fillcolor="#7bbeee"] ;
318 -> 320 ;
321 [label="gini = 0.0\nsamples = 3\nvalue = [0, 3]", fillcolor="#399de5"] ;
320 -> 321 ;
322 [label="gini = 0.0\nsamples = 1\nvalue = [1, 0]", fillcolor="#e58139"] ;
320 -> 322 ;
323 [label="bmi <= -0.808\ngini = 0.096\nsamples = 317\nvalue = [301, 16]", fillcolor="#e68844"] ;
237 -> 323 ;
324 [label="bmi <= -0.913\ngini = 0.311\nsamples = 26\nvalue = [21, 5]", fillcolor="#eb9f68"] ;
323 -> 324 ;
325 [label="Residence_type <= -0.024\ngini = 0.172\nsamples = 21\nvalue = [19, 2]", fillcolor="#e88e4e"] ;
324 -> 325 ;
326 [label="gini = 0.0\nsamples = 13\nvalue = [13, 0]", fillcolor="#e58139"] ;
325 -> 326 ;
327 [label="smoking_status3 <= 0.963\ngini = 0.375\nsamples = 8\nvalue = [6, 2]", fillcolor="#eeab7b"] ;
325 -> 327 ;
328 [label="smoking_status2 <= 0.273\ngini = 0.245\nsamples = 7\nvalue = [6, 1]", fillcolor="#e9965a"] ;
327 -> 328 ;
329 [label="gini = 0.0\nsamples = 5\nvalue = [5, 0]", fillcolor="#e58139"] ;
328 -> 329 ;
330 [label="age <= 1.508\ngini = 0.5\nsamples = 2\nvalue = [1, 1]", fillcolor="#ffffff"] ;
328 -> 330 ;
331 [label="gini = 0.0\nsamples = 1\nvalue = [1, 0]", fillcolor="#e58139"] ;
330 -> 331 ;
332 [label="gini = 0.0\nsamples = 1\nvalue = [0, 1]", fillcolor="#399de5"] ;
330 -> 332 ;
333 [label="gini = 0.0\nsamples = 1\nvalue = [0, 1]", fillcolor="#399de5"] ;
327 -> 333 ;
334 [label="work_type3 <= 0.935\ngini = 0.48\nsamples = 5\nvalue = [2, 3]", fillcolor="#bddef6"] ;
324 -> 334 ;
335 [label="gini = 0.0\nsamples = 3\nvalue = [0, 3]", fillcolor="#399de5"] ;
334 -> 335 ;
336 [label="gini = 0.0\nsamples = 2\nvalue = [2, 0]", fillcolor="#e58139"] ;
334 -> 336 ;
337 [label="avg_glucose_level <= 0.068\ngini = 0.073\nsamples = 291\nvalue = [280, 11]", fillcolor="#e68641"] ;
323 -> 337 ;
338 [label="avg_glucose_level <= 0.066\ngini = 0.137\nsamples = 108\nvalue = [100, 8]", fillcolor="#e78b49"] ;
337 -> 338 ;
339 [label="age <= 1.464\ngini = 0.122\nsamples = 107\nvalue = [100, 7]", fillcolor="#e78a47"] ;
338 -> 339 ;
340 [label="hypertension <= 1.393\ngini = 0.035\nsamples = 56\nvalue = [55, 1]", fillcolor="#e5833d"] ;
339 -> 340 ;
341 [label="gini = 0.0\nsamples = 46\nvalue = [46, 0]", fillcolor="#e58139"] ;
340 -> 341 ;
342 [label="avg_glucose_level <= -0.209\ngini = 0.18\nsamples = 10\nvalue = [9, 1]", fillcolor="#e88f4f"] ;
340 -> 342 ;
343 [label="gini = 0.0\nsamples = 1\nvalue = [0, 1]", fillcolor="#399de5"] ;
342 -> 343 ;
344 [label="gini = 0.0\nsamples = 9\nvalue = [9, 0]", fillcolor="#e58139"] ;
342 -> 344 ;
345 [label="avg_glucose_level <= -0.114\ngini = 0.208\nsamples = 51\nvalue = [45, 6]", fillcolor="#e89253"] ;
339 -> 345 ;
346 [label="smoking_status1 <= 0.857\ngini = 0.074\nsamples = 26\nvalue = [25, 1]", fillcolor="#e68641"] ;
345 -> 346 ;
347 [label="gini = 0.0\nsamples = 21\nvalue = [21, 0]", fillcolor="#e58139"] ;
346 -> 347 ;
348 [label="Residence_type <= -0.024\ngini = 0.32\nsamples = 5\nvalue = [4, 1]", fillcolor="#eca06a"] ;
346 -> 348 ;
349 [label="gini = 0.0\nsamples = 1\nvalue = [0, 1]", fillcolor="#399de5"] ;
348 -> 349 ;
350 [label="gini = 0.0\nsamples = 4\nvalue = [4, 0]", fillcolor="#e58139"] ;
348 -> 350 ;
351 [label="avg_glucose_level <= -0.108\ngini = 0.32\nsamples = 25\nvalue = [20, 5]", fillcolor="#eca06a"] ;
345 -> 351 ;
352 [label="gini = 0.0\nsamples = 1\nvalue = [0, 1]", fillcolor="#399de5"] ;
351 -> 352 ;
353 [label="gender <= 0.161\ngini = 0.278\nsamples = 24\nvalue = [20, 4]", fillcolor="#ea9a61"] ;
351 -> 353 ;
354 [label="bmi <= -0.544\ngini = 0.117\nsamples = 16\nvalue = [15, 1]", fillcolor="#e78946"] ;
353 -> 354 ;
355 [label="avg_glucose_level <= 0.033\ngini = 0.5\nsamples = 2\nvalue = [1, 1]", fillcolor="#ffffff"] ;
354 -> 355 ;
356 [label="gini = 0.0\nsamples = 1\nvalue = [0, 1]", fillcolor="#399de5"] ;
355 -> 356 ;
357 [label="gini = 0.0\nsamples = 1\nvalue = [1, 0]", fillcolor="#e58139"] ;
355 -> 357 ;
358 [label="gini = 0.0\nsamples = 14\nvalue = [14, 0]", fillcolor="#e58139"] ;
354 -> 358 ;
359 [label="Residence_type <= -0.024\ngini = 0.469\nsamples = 8\nvalue = [5, 3]", fillcolor="#f5cdb0"] ;
353 -> 359 ;
360 [label="gini = 0.0\nsamples = 1\nvalue = [0, 1]", fillcolor="#399de5"] ;
359 -> 360 ;
361 [label="bmi <= 0.2\ngini = 0.408\nsamples = 7\nvalue = [5, 2]", fillcolor="#efb388"] ;
359 -> 361 ;
362 [label="avg_glucose_level <= 0.039\ngini = 0.5\nsamples = 4\nvalue = [2, 2]", fillcolor="#ffffff"] ;
361 -> 362 ;
363 [label="hypertension <= 1.393\ngini = 0.444\nsamples = 3\nvalue = [1, 2]", fillcolor="#9ccef2"] ;
362 -> 363 ;
364 [label="gini = 0.0\nsamples = 1\nvalue = [0, 1]", fillcolor="#399de5"] ;
363 -> 364 ;
365 [label="avg_glucose_level <= -0.033\ngini = 0.5\nsamples = 2\nvalue = [1, 1]", fillcolor="#ffffff"] ;
363 -> 365 ;
366 [label="gini = 0.0\nsamples = 1\nvalue = [1, 0]", fillcolor="#e58139"] ;
365 -> 366 ;
367 [label="gini = 0.0\nsamples = 1\nvalue = [0, 1]", fillcolor="#399de5"] ;
365 -> 367 ;
368 [label="gini = 0.0\nsamples = 1\nvalue = [1, 0]", fillcolor="#e58139"] ;
362 -> 368 ;
369 [label="gini = 0.0\nsamples = 3\nvalue = [3, 0]", fillcolor="#e58139"] ;
361 -> 369 ;
370 [label="gini = 0.0\nsamples = 1\nvalue = [0, 1]", fillcolor="#399de5"] ;
338 -> 370 ;
371 [label="smoking_status3 <= 0.963\ngini = 0.032\nsamples = 183\nvalue = [180, 3]", fillcolor="#e5833c"] ;
337 -> 371 ;
372 [label="age <= 1.64\ngini = 0.024\nsamples = 168\nvalue = [166, 2]", fillcolor="#e5833b"] ;
371 -> 372 ;
373 [label="avg_glucose_level <= 0.484\ngini = 0.013\nsamples = 150\nvalue = [149, 1]", fillcolor="#e5823a"] ;
372 -> 373 ;
374 [label="gini = 0.0\nsamples = 129\nvalue = [129, 0]", fillcolor="#e58139"] ;
373 -> 374 ;
375 [label="avg_glucose_level <= 0.487\ngini = 0.091\nsamples = 21\nvalue = [20, 1]", fillcolor="#e68743"] ;
373 -> 375 ;
376 [label="gini = 0.0\nsamples = 1\nvalue = [0, 1]", fillcolor="#399de5"] ;
375 -> 376 ;
377 [label="gini = 0.0\nsamples = 20\nvalue = [20, 0]", fillcolor="#e58139"] ;
375 -> 377 ;
378 [label="bmi <= 0.645\ngini = 0.105\nsamples = 18\nvalue = [17, 1]", fillcolor="#e78845"] ;
372 -> 378 ;
379 [label="gini = 0.0\nsamples = 15\nvalue = [15, 0]", fillcolor="#e58139"] ;
378 -> 379 ;
380 [label="bmi <= 0.826\ngini = 0.444\nsamples = 3\nvalue = [2, 1]", fillcolor="#f2c09c"] ;
378 -> 380 ;
381 [label="gini = 0.0\nsamples = 1\nvalue = [0, 1]", fillcolor="#399de5"] ;
380 -> 381 ;
382 [label="gini = 0.0\nsamples = 2\nvalue = [2, 0]", fillcolor="#e58139"] ;
380 -> 382 ;
383 [label="avg_glucose_level <= 0.265\ngini = 0.124\nsamples = 15\nvalue = [14, 1]", fillcolor="#e78a47"] ;
371 -> 383 ;
384 [label="work_type2 <= -0.144\ngini = 0.444\nsamples = 3\nvalue = [2, 1]", fillcolor="#f2c09c"] ;
383 -> 384 ;
385 [label="gini = 0.0\nsamples = 2\nvalue = [2, 0]", fillcolor="#e58139"] ;
384 -> 385 ;
386 [label="gini = 0.0\nsamples = 1\nvalue = [0, 1]", fillcolor="#399de5"] ;
384 -> 386 ;
387 [label="gini = 0.0\nsamples = 12\nvalue = [12, 0]", fillcolor="#e58139"] ;
383 -> 387 ;
388 [label="avg_glucose_level <= 0.617\ngini = 0.483\nsamples = 157\nvalue = [93, 64]", fillcolor="#f7d8c1"] ;
236 -> 388 ;
389 [label="avg_glucose_level <= 0.558\ngini = 0.222\nsamples = 55\nvalue = [7, 48]", fillcolor="#56abe9"] ;
388 -> 389 ;
390 [label="avg_glucose_level <= 0.555\ngini = 0.415\nsamples = 17\nvalue = [5, 12]", fillcolor="#8bc6f0"] ;
389 -> 390 ;
391 [label="gender <= 0.161\ngini = 0.32\nsamples = 15\nvalue = [3, 12]", fillcolor="#6ab6ec"] ;
390 -> 391 ;
392 [label="heart_disease <= 1.932\ngini = 0.469\nsamples = 8\nvalue = [3, 5]", fillcolor="#b0d8f5"] ;
391 -> 392 ;
393 [label="avg_glucose_level <= 0.541\ngini = 0.48\nsamples = 5\nvalue = [3, 2]", fillcolor="#f6d5bd"] ;
392 -> 393 ;
394 [label="hypertension <= 1.393\ngini = 0.444\nsamples = 3\nvalue = [1, 2]", fillcolor="#9ccef2"] ;
393 -> 394 ;
395 [label="age <= 1.179\ngini = 0.5\nsamples = 2\nvalue = [1, 1]", fillcolor="#ffffff"] ;
394 -> 395 ;
396 [label="gini = 0.0\nsamples = 1\nvalue = [0, 1]", fillcolor="#399de5"] ;
395 -> 396 ;
397 [label="gini = 0.0\nsamples = 1\nvalue = [1, 0]", fillcolor="#e58139"] ;
395 -> 397 ;
398 [label="gini = 0.0\nsamples = 1\nvalue = [0, 1]", fillcolor="#399de5"] ;
394 -> 398 ;
399 [label="gini = 0.0\nsamples = 2\nvalue = [2, 0]", fillcolor="#e58139"] ;
393 -> 399 ;
400 [label="gini = 0.0\nsamples = 3\nvalue = [0, 3]", fillcolor="#399de5"] ;
392 -> 400 ;
401 [label="gini = 0.0\nsamples = 7\nvalue = [0, 7]", fillcolor="#399de5"] ;
391 -> 401 ;
402 [label="gini = 0.0\nsamples = 2\nvalue = [2, 0]", fillcolor="#e58139"] ;
390 -> 402 ;
403 [label="avg_glucose_level <= 0.607\ngini = 0.1\nsamples = 38\nvalue = [2, 36]", fillcolor="#44a2e6"] ;
389 -> 403 ;
404 [label="gini = 0.0\nsamples = 29\nvalue = [0, 29]", fillcolor="#399de5"] ;
403 -> 404 ;
405 [label="bmi <= 0.382\ngini = 0.346\nsamples = 9\nvalue = [2, 7]", fillcolor="#72b9ec"] ;
403 -> 405 ;
406 [label="gini = 0.0\nsamples = 7\nvalue = [0, 7]", fillcolor="#399de5"] ;
405 -> 406 ;
407 [label="gini = 0.0\nsamples = 2\nvalue = [2, 0]", fillcolor="#e58139"] ;
405 -> 407 ;
408 [label="age <= 1.332\ngini = 0.265\nsamples = 102\nvalue = [86, 16]", fillcolor="#ea985e"] ;
388 -> 408 ;
409 [label="gini = 0.0\nsamples = 32\nvalue = [32, 0]", fillcolor="#e58139"] ;
408 -> 409 ;
410 [label="bmi <= 0.848\ngini = 0.353\nsamples = 70\nvalue = [54, 16]", fillcolor="#eda674"] ;
408 -> 410 ;
411 [label="bmi <= 0.623\ngini = 0.387\nsamples = 61\nvalue = [45, 16]", fillcolor="#eeae7f"] ;
410 -> 411 ;
412 [label="avg_glucose_level <= 3.429\ngini = 0.357\nsamples = 56\nvalue = [43, 13]", fillcolor="#eda775"] ;
411 -> 412 ;
413 [label="avg_glucose_level <= 2.44\ngini = 0.341\nsamples = 55\nvalue = [43, 12]", fillcolor="#eca470"] ;
412 -> 413 ;
414 [label="avg_glucose_level <= 2.037\ngini = 0.386\nsamples = 46\nvalue = [34, 12]", fillcolor="#eead7f"] ;
413 -> 414 ;
415 [label="age <= 1.64\ngini = 0.351\nsamples = 44\nvalue = [34, 10]", fillcolor="#eda673"] ;
414 -> 415 ;
416 [label="bmi <= -1.147\ngini = 0.408\nsamples = 35\nvalue = [25, 10]", fillcolor="#efb388"] ;
415 -> 416 ;
417 [label="gini = 0.0\nsamples = 1\nvalue = [0, 1]", fillcolor="#399de5"] ;
416 -> 417 ;
418 [label="age <= 1.42\ngini = 0.389\nsamples = 34\nvalue = [25, 9]", fillcolor="#eeae80"] ;
416 -> 418 ;
419 [label="gini = 0.0\nsamples = 5\nvalue = [5, 0]", fillcolor="#e58139"] ;
418 -> 419 ;
420 [label="bmi <= -0.62\ngini = 0.428\nsamples = 29\nvalue = [20, 9]", fillcolor="#f1ba92"] ;
418 -> 420 ;
421 [label="work_type3 <= 0.935\ngini = 0.5\nsamples = 6\nvalue = [3, 3]", fillcolor="#ffffff"] ;
420 -> 421 ;
422 [label="age <= 1.486\ngini = 0.375\nsamples = 4\nvalue = [1, 3]", fillcolor="#7bbeee"] ;
421 -> 422 ;
423 [label="gini = 0.0\nsamples = 1\nvalue = [1, 0]", fillcolor="#e58139"] ;
422 -> 423 ;
424 [label="gini = 0.0\nsamples = 3\nvalue = [0, 3]", fillcolor="#399de5"] ;
422 -> 424 ;
425 [label="gini = 0.0\nsamples = 2\nvalue = [2, 0]", fillcolor="#e58139"] ;
421 -> 425 ;
426 [label="gender <= 0.161\ngini = 0.386\nsamples = 23\nvalue = [17, 6]", fillcolor="#eead7f"] ;
420 -> 426 ;
427 [label="avg_glucose_level <= 0.794\ngini = 0.486\nsamples = 12\nvalue = [7, 5]", fillcolor="#f8dbc6"] ;
426 -> 427 ;
428 [label="gini = 0.0\nsamples = 2\nvalue = [0, 2]", fillcolor="#399de5"] ;
427 -> 428 ;
429 [label="heart_disease <= 1.932\ngini = 0.42\nsamples = 10\nvalue = [7, 3]", fillcolor="#f0b78e"] ;
427 -> 429 ;
430 [label="work_type2 <= -0.144\ngini = 0.346\nsamples = 9\nvalue = [7, 2]", fillcolor="#eca572"] ;
429 -> 430 ;
431 [label="work_type3 <= 0.935\ngini = 0.444\nsamples = 6\nvalue = [4, 2]", fillcolor="#f2c09c"] ;
430 -> 431 ;
432 [label="gini = 0.0\nsamples = 1\nvalue = [0, 1]", fillcolor="#399de5"] ;
431 -> 432 ;
433 [label="hypertension <= 1.393\ngini = 0.32\nsamples = 5\nvalue = [4, 1]", fillcolor="#eca06a"] ;
431 -> 433 ;
434 [label="gini = 0.0\nsamples = 3\nvalue = [3, 0]", fillcolor="#e58139"] ;
433 -> 434 ;
435 [label="avg_glucose_level <= 1.134\ngini = 0.5\nsamples = 2\nvalue = [1, 1]", fillcolor="#ffffff"] ;
433 -> 435 ;
436 [label="gini = 0.0\nsamples = 1\nvalue = [1, 0]", fillcolor="#e58139"] ;
435 -> 436 ;
437 [label="gini = 0.0\nsamples = 1\nvalue = [0, 1]", fillcolor="#399de5"] ;
435 -> 437 ;
438 [label="gini = 0.0\nsamples = 3\nvalue = [3, 0]", fillcolor="#e58139"] ;
430 -> 438 ;
439 [label="gini = 0.0\nsamples = 1\nvalue = [0, 1]", fillcolor="#399de5"] ;
429 -> 439 ;
440 [label="age <= 1.552\ngini = 0.165\nsamples = 11\nvalue = [10, 1]", fillcolor="#e88e4d"] ;
426 -> 440 ;
441 [label="age <= 1.508\ngini = 0.375\nsamples = 4\nvalue = [3, 1]", fillcolor="#eeab7b"] ;
440 -> 441 ;
442 [label="gini = 0.0\nsamples = 3\nvalue = [3, 0]", fillcolor="#e58139"] ;
441 -> 442 ;
443 [label="gini = 0.0\nsamples = 1\nvalue = [0, 1]", fillcolor="#399de5"] ;
441 -> 443 ;
444 [label="gini = 0.0\nsamples = 7\nvalue = [7, 0]", fillcolor="#e58139"] ;
440 -> 444 ;
445 [label="gini = 0.0\nsamples = 9\nvalue = [9, 0]", fillcolor="#e58139"] ;
415 -> 445 ;
446 [label="gini = 0.0\nsamples = 2\nvalue = [0, 2]", fillcolor="#399de5"] ;
414 -> 446 ;
447 [label="gini = 0.0\nsamples = 9\nvalue = [9, 0]", fillcolor="#e58139"] ;
413 -> 447 ;
448 [label="gini = 0.0\nsamples = 1\nvalue = [0, 1]", fillcolor="#399de5"] ;
412 -> 448 ;
449 [label="avg_glucose_level <= 1.748\ngini = 0.48\nsamples = 5\nvalue = [2, 3]", fillcolor="#bddef6"] ;
411 -> 449 ;
450 [label="bmi <= 0.66\ngini = 0.444\nsamples = 3\nvalue = [2, 1]", fillcolor="#f2c09c"] ;
449 -> 450 ;
451 [label="gini = 0.0\nsamples = 1\nvalue = [0, 1]", fillcolor="#399de5"] ;
450 -> 451 ;
452 [label="gini = 0.0\nsamples = 2\nvalue = [2, 0]", fillcolor="#e58139"] ;
450 -> 452 ;
453 [label="gini = 0.0\nsamples = 2\nvalue = [0, 2]", fillcolor="#399de5"] ;
449 -> 453 ;
454 [label="gini = 0.0\nsamples = 9\nvalue = [9, 0]", fillcolor="#e58139"] ;
410 -> 454 ;
}